digraph Tree {
node [shape=box, style="filled", color="black", fontname="helvetica"] ;
edge [fontname="helvetica"] ;
0 [label="respiração <= 11.381\nsquared_error = 0.492\nsamples = 704\nvalue = 2.161", fillcolor="#f4caac"] ;
1 [label="qPA <= 4.691\nsquared_error = 0.311\nsamples = 368\nvalue = 1.866", fillcolor="#f7d8c1"] ;
0 -> 1 [labeldistance=2.5, labelangle=45, headlabel="True"] ;
2 [label="qPA <= -4.724\nsquared_error = 0.193\nsamples = 223\nvalue = 2.121", fillcolor="#f4ccaf"] ;
1 -> 2 ;
3 [label="pulso <= 124.115\nsquared_error = 0.241\nsamples = 24\nvalue = 1.595", fillcolor="#f9e4d4"] ;
2 -> 3 ;
4 [label="pulso <= 48.678\nsquared_error = 0.183\nsamples = 17\nvalue = 1.759", fillcolor="#f8dcc9"] ;
3 -> 4 ;
5 [label="squared_error = 0.0\nsamples = 4\nvalue = 1.0", fillcolor="#ffffff"] ;
4 -> 5 ;
6 [label="squared_error = 0.0\nsamples = 13\nvalue = 2.0", fillcolor="#f6d2b8"] ;
4 -> 6 ;
7 [label="squared_error = 0.0\nsamples = 7\nvalue = 1.0", fillcolor="#ffffff"] ;
3 -> 7 ;
8 [label="pulso <= 119.027\nsquared_error = 0.15\nsamples = 199\nvalue = 2.184", fillcolor="#f4c9aa"] ;
2 -> 8 ;
9 [label="pulso <= 50.167\nsquared_error = 0.208\nsamples = 123\nvalue = 2.295", fillcolor="#f3c4a2"] ;
8 -> 9 ;
10 [label="pulso <= 44.552\nsquared_error = 0.023\nsamples = 57\nvalue = 2.023", fillcolor="#f5d0b6"] ;
9 -> 10 ;
11 [label="squared_error = 0.0\nsamples = 47\nvalue = 2.0", fillcolor="#f6d2b8"] ;
10 -> 11 ;
12 [label="squared_error = 0.099\nsamples = 10\nvalue = 2.111", fillcolor="#f5ccb0"] ;
10 -> 12 ;
13 [label="pulso <= 92.227\nsquared_error = 0.25\nsamples = 66\nvalue = 2.519", fillcolor="#f1ba92"] ;
9 -> 13 ;
14 [label="squared_error = 0.194\nsamples = 35\nvalue = 2.736", fillcolor="#efb083"] ;
13 -> 14 ;
15 [label="squared_error = 0.208\nsamples = 31\nvalue = 2.294", fillcolor="#f3c4a2"] ;
13 -> 15 ;
16 [label="pulso <= 123.441\nsquared_error = 0.008\nsamples = 76\nvalue = 2.008", fillcolor="#f6d1b7"] ;
8 -> 16 ;
17 [label="pulso <= 121.712\nsquared_error = 0.071\nsamples = 6\nvalue = 2.077", fillcolor="#f5ceb2"] ;
16 -> 17 ;
18 [label="squared_error = 0.0\nsamples = 5\nvalue = 2.0", fillcolor="#f6d2b8"] ;
17 -> 18 ;
19 [label="squared_error = 0.0\nsamples = 1\nvalue = 3.0", fillcolor="#eca470"] ;
17 -> 19 ;
20 [label="squared_error = 0.0\nsamples = 70\nvalue = 2.0", fillcolor="#f6d2b8"] ;
16 -> 20 ;
21 [label="pulso <= 126.753\nsquared_error = 0.25\nsamples = 145\nvalue = 1.494", fillcolor="#fae9dc"] ;
1 -> 21 ;
22 [label="pulso <= 40.752\nsquared_error = 0.197\nsamples = 95\nvalue = 1.73", fillcolor="#f8decb"] ;
21 -> 22 ;
23 [label="qPA <= 4.785\nsquared_error = 0.083\nsamples = 32\nvalue = 1.091", fillcolor="#fefbf9"] ;
22 -> 23 ;
24 [label="respiração <= 7.697\nsquared_error = 0.247\nsamples = 7\nvalue = 1.444", fillcolor="#fbebdf"] ;
23 -> 24 ;
25 [label="squared_error = 0.0\nsamples = 5\nvalue = 1.0", fillcolor="#ffffff"] ;
24 -> 25 ;
26 [label="squared_error = 0.0\nsamples = 2\nvalue = 2.0", fillcolor="#f6d2b8"] ;
24 -> 26 ;
27 [label="squared_error = 0.0\nsamples = 25\nvalue = 1.0", fillcolor="#ffffff"] ;
23 -> 27 ;
28 [label="squared_error = 0.0\nsamples = 63\nvalue = 2.0", fillcolor="#f6d2b8"] ;
22 -> 28 ;
29 [label="respiração <= 10.264\nsquared_error = 0.091\nsamples = 50\nvalue = 1.101", fillcolor="#fefaf8"] ;
21 -> 29 ;
30 [label="qPA <= 4.787\nsquared_error = 0.035\nsamples = 46\nvalue = 1.036", fillcolor="#fffdfc"] ;
29 -> 30 ;
31 [label="qPA <= 4.781\nsquared_error = 0.245\nsamples = 5\nvalue = 1.429", fillcolor="#fbece0"] ;
30 -> 31 ;
32 [label="squared_error = 0.0\nsamples = 4\nvalue = 1.0", fillcolor="#ffffff"] ;
31 -> 32 ;
33 [label="squared_error = 0.0\nsamples = 1\nvalue = 2.0", fillcolor="#f6d2b8"] ;
31 -> 33 ;
34 [label="squared_error = 0.0\nsamples = 41\nvalue = 1.0", fillcolor="#ffffff"] ;
30 -> 34 ;
35 [label="squared_error = 0.0\nsamples = 4\nvalue = 2.0", fillcolor="#f6d2b8"] ;
29 -> 35 ;
36 [label="qPA <= 4.128\nsquared_error = 0.494\nsamples = 336\nvalue = 2.479", fillcolor="#f1bc95"] ;
0 -> 36 [labeldistance=2.5, labelangle=-45, headlabel="False"] ;
37 [label="qPA <= -3.784\nsquared_error = 0.391\nsamples = 153\nvalue = 2.87", fillcolor="#edaa79"] ;
36 -> 37 ;
38 [label="respiração <= 17.44\nsquared_error = 0.288\nsamples = 60\nvalue = 2.557", fillcolor="#f0b890"] ;
37 -> 38 ;
39 [label="respiração <= 12.808\nsquared_error = 0.194\nsamples = 36\nvalue = 2.737", fillcolor="#efb083"] ;
38 -> 39 ;
40 [label="squared_error = 0.0\nsamples = 8\nvalue = 2.0", fillcolor="#f6d2b8"] ;
39 -> 40 ;
41 [label="pulso <= 38.913\nsquared_error = 0.109\nsamples = 28\nvalue = 2.875", fillcolor="#edaa79"] ;
39 -> 41 ;
42 [label="squared_error = 0.0\nsamples = 4\nvalue = 2.0", fillcolor="#f6d2b8"] ;
41 -> 42 ;
43 [label="squared_error = 0.0\nsamples = 24\nvalue = 3.0", fillcolor="#eca470"] ;
41 -> 43 ;
44 [label="pulso <= 107.658\nsquared_error = 0.31\nsamples = 24\nvalue = 2.3", fillcolor="#f3c4a2"] ;
38 -> 44 ;
45 [label="pulso <= 55.815\nsquared_error = 0.21\nsamples = 13\nvalue = 2.7", fillcolor="#efb285"] ;
44 -> 45 ;
46 [label="squared_error = 0.0\nsamples = 5\nvalue = 2.0", fillcolor="#f6d2b8"] ;
45 -> 46 ;
47 [label="squared_error = 0.0\nsamples = 8\nvalue = 3.0", fillcolor="#eca470"] ;
45 -> 47 ;
48 [label="respiração <= 20.329\nsquared_error = 0.09\nsamples = 11\nvalue = 1.9", fillcolor="#f7d6bf"] ;
44 -> 48 ;
49 [label="squared_error = 0.0\nsamples = 8\nvalue = 2.0", fillcolor="#f6d2b8"] ;
48 -> 49 ;
50 [label="squared_error = 0.24\nsamples = 3\nvalue = 1.6", fillcolor="#f9e4d4"] ;
48 -> 50 ;
51 [label="pulso <= 27.077\nsquared_error = 0.347\nsamples = 93\nvalue = 3.085", fillcolor="#eba06a"] ;
37 -> 51 ;
52 [label="respiração <= 19.114\nsquared_error = 0.248\nsamples = 13\nvalue = 2.545", fillcolor="#f0b990"] ;
51 -> 52 ;
53 [label="pulso <= 23.064\nsquared_error = 0.071\nsamples = 9\nvalue = 2.923", fillcolor="#eda876"] ;
52 -> 53 ;
54 [label="squared_error = 0.0\nsamples = 8\nvalue = 3.0", fillcolor="#eca470"] ;
53 -> 54 ;
55 [label="squared_error = 0.0\nsamples = 1\nvalue = 2.0", fillcolor="#f6d2b8"] ;
53 -> 55 ;
56 [label="squared_error = 0.0\nsamples = 4\nvalue = 2.0", fillcolor="#f6d2b8"] ;
52 -> 56 ;
57 [label="pulso <= 103.034\nsquared_error = 0.302\nsamples = 80\nvalue = 3.185", fillcolor="#ea9c63"] ;
51 -> 57 ;
58 [label="pulso <= 65.262\nsquared_error = 0.249\nsamples = 38\nvalue = 3.534", fillcolor="#e78c4a"] ;
57 -> 58 ;
59 [label="squared_error = 0.05\nsamples = 15\nvalue = 3.053", fillcolor="#eca26c"] ;
58 -> 59 ;
60 [label="squared_error = 0.178\nsamples = 23\nvalue = 3.769", fillcolor="#e58139"] ;
58 -> 60 ;
61 [label="respiração <= 19.91\nsquared_error = 0.126\nsamples = 42\nvalue = 2.852", fillcolor="#eeab7b"] ;
57 -> 61 ;
62 [label="squared_error = 0.037\nsamples = 35\nvalue = 2.962", fillcolor="#eda673"] ;
61 -> 62 ;
63 [label="squared_error = 0.173\nsamples = 7\nvalue = 2.222", fillcolor="#f4c7a8"] ;
61 -> 63 ;
64 [label="respiração <= 19.602\nsquared_error = 0.36\nsamples = 183\nvalue = 2.172", fillcolor="#f4caab"] ;
36 -> 64 ;
65 [label="pulso <= 109.695\nsquared_error = 0.225\nsamples = 146\nvalue = 2.34", fillcolor="#f2c29f"] ;
64 -> 65 ;
66 [label="pulso <= 42.138\nsquared_error = 0.246\nsamples = 74\nvalue = 2.561", fillcolor="#f0b88f"] ;
65 -> 66 ;
67 [label="squared_error = 0.0\nsamples = 25\nvalue = 2.0", fillcolor="#f6d2b8"] ;
66 -> 67 ;
68 [label="respiração <= 12.365\nsquared_error = 0.14\nsamples = 49\nvalue = 2.831", fillcolor="#eeac7c"] ;
66 -> 68 ;
69 [label="squared_error = 0.21\nsamples = 7\nvalue = 2.3", fillcolor="#f3c4a2"] ;
68 -> 69 ;
70 [label="squared_error = 0.091\nsamples = 42\nvalue = 2.899", fillcolor="#eda977"] ;
68 -> 70 ;
71 [label="qPA <= 4.237\nsquared_error = 0.062\nsamples = 72\nvalue = 2.066", fillcolor="#f5ceb3"] ;
65 -> 71 ;
72 [label="squared_error = 0.0\nsamples = 1\nvalue = 3.0", fillcolor="#eca470"] ;
71 -> 72 ;
73 [label="pulso <= 127.373\nsquared_error = 0.046\nsamples = 71\nvalue = 2.048", fillcolor="#f5cfb4"] ;
71 -> 73 ;
74 [label="squared_error = 0.151\nsamples = 19\nvalue = 2.185", fillcolor="#f4c9aa"] ;
73 -> 74 ;
75 [label="squared_error = 0.0\nsamples = 52\nvalue = 2.0", fillcolor="#f6d2b8"] ;
73 -> 75 ;
76 [label="qPA <= 5.215\nsquared_error = 0.37\nsamples = 37\nvalue = 1.554", fillcolor="#fae6d7"] ;
64 -> 76 ;
77 [label="pulso <= 96.177\nsquared_error = 0.154\nsamples = 15\nvalue = 2.19", fillcolor="#f4c9aa"] ;
76 -> 77 ;
78 [label="pulso <= 87.971\nsquared_error = 0.247\nsamples = 7\nvalue = 2.444", fillcolor="#f1bd98"] ;
77 -> 78 ;
79 [label="squared_error = 0.139\nsamples = 4\nvalue = 2.167", fillcolor="#f4caac"] ;
78 -> 79 ;
80 [label="squared_error = 0.0\nsamples = 3\nvalue = 3.0", fillcolor="#eca470"] ;
78 -> 80 ;
81 [label="squared_error = 0.0\nsamples = 8\nvalue = 2.0", fillcolor="#f6d2b8"] ;
77 -> 81 ;
82 [label="pulso <= 123.779\nsquared_error = 0.188\nsamples = 22\nvalue = 1.25", fillcolor="#fdf4ed"] ;
76 -> 82 ;
83 [label="pulso <= 30.037\nsquared_error = 0.25\nsamples = 11\nvalue = 1.5", fillcolor="#fae8db"] ;
82 -> 83 ;
84 [label="squared_error = 0.0\nsamples = 5\nvalue = 1.0", fillcolor="#ffffff"] ;
83 -> 84 ;
85 [label="squared_error = 0.0\nsamples = 6\nvalue = 2.0", fillcolor="#f6d2b8"] ;
83 -> 85 ;
86 [label="squared_error = 0.0\nsamples = 11\nvalue = 1.0", fillcolor="#ffffff"] ;
82 -> 86 ;
}