digraph Tree {
node [shape=box, style="filled", color="black", fontname="helvetica"] ;
edge [fontname="helvetica"] ;
0 [label="respiração <= 11.744\nsquared_error = 266.425\nsamples = 701\nvalue = 41.729", fillcolor="#f3c6a6"] ;
1 [label="qPA <= 5.206\nsquared_error = 166.544\nsamples = 376\nvalue = 33.695", fillcolor="#f7d6bf"] ;
0 -> 1 [labeldistance=2.5, labelangle=45, headlabel="True"] ;
2 [label="pulso <= 129.657\nsquared_error = 125.909\nsamples = 264\nvalue = 37.5", fillcolor="#f5cfb3"] ;
1 -> 2 ;
3 [label="pulso <= 38.324\nsquared_error = 118.833\nsamples = 175\nvalue = 41.137", fillcolor="#f4c8a8"] ;
2 -> 3 ;
4 [label="qPA <= 4.158\nsquared_error = 50.648\nsamples = 57\nvalue = 31.114", fillcolor="#f8dcc7"] ;
3 -> 4 ;
5 [label="qPA <= -2.235\nsquared_error = 50.735\nsamples = 42\nvalue = 32.791", fillcolor="#f7d8c2"] ;
4 -> 5 ;
6 [label="squared_error = 30.285\nsamples = 25\nvalue = 28.112", fillcolor="#f9e2d1"] ;
5 -> 6 ;
7 [label="squared_error = 18.145\nsamples = 17\nvalue = 38.348", fillcolor="#f5cdb1"] ;
5 -> 7 ;
8 [label="qPA <= 4.764\nsquared_error = 1.804\nsamples = 15\nvalue = 24.936", fillcolor="#fae8db"] ;
4 -> 8 ;
9 [label="squared_error = 1.442\nsamples = 11\nvalue = 25.712", fillcolor="#fae6d8"] ;
8 -> 9 ;
10 [label="squared_error = 0.338\nsamples = 4\nvalue = 23.87", fillcolor="#fbeade"] ;
8 -> 10 ;
11 [label="qPA <= 4.384\nsquared_error = 82.594\nsamples = 118\nvalue = 45.758", fillcolor="#f2be99"] ;
3 -> 11 ;
12 [label="qPA <= -3.311\nsquared_error = 91.654\nsamples = 76\nvalue = 48.248", fillcolor="#f1b991"] ;
11 -> 12 ;
13 [label="squared_error = 36.255\nsamples = 30\nvalue = 40.23", fillcolor="#f4c9ab"] ;
12 -> 13 ;
14 [label="squared_error = 57.95\nsamples = 46\nvalue = 53.526", fillcolor="#eeaf81"] ;
12 -> 14 ;
15 [label="pulso <= 55.401\nsquared_error = 22.689\nsamples = 42\nvalue = 40.498", fillcolor="#f4c9aa"] ;
11 -> 15 ;
16 [label="squared_error = 0.357\nsamples = 10\nvalue = 36.462", fillcolor="#f5d1b7"] ;
15 -> 16 ;
17 [label="squared_error = 22.819\nsamples = 32\nvalue = 41.902", fillcolor="#f3c6a5"] ;
15 -> 17 ;
18 [label="qPA <= -2.435\nsquared_error = 68.994\nsamples = 89\nvalue = 30.754", fillcolor="#f8dcc8"] ;
2 -> 18 ;
19 [label="qPA <= -5.216\nsquared_error = 30.639\nsamples = 30\nvalue = 23.975", fillcolor="#fbeade"] ;
18 -> 19 ;
20 [label="respiração <= 7.512\nsquared_error = 5.989\nsamples = 6\nvalue = 15.485", fillcolor="#fefbf8"] ;
19 -> 20 ;
21 [label="squared_error = 0.025\nsamples = 3\nvalue = 13.391", fillcolor="#ffffff"] ;
20 -> 21 ;
22 [label="squared_error = 0.299\nsamples = 3\nvalue = 18.277", fillcolor="#fdf5f0"] ;
20 -> 22 ;
23 [label="pulso <= 133.098\nsquared_error = 3.384\nsamples = 24\nvalue = 27.103", fillcolor="#f9e4d4"] ;
19 -> 23 ;
24 [label="squared_error = 0.0\nsamples = 1\nvalue = 33.337", fillcolor="#f7d7c0"] ;
23 -> 24 ;
25 [label="squared_error = 1.293\nsamples = 23\nvalue = 26.756", fillcolor="#f9e4d5"] ;
23 -> 25 ;
26 [label="qPA <= 4.459\nsquared_error = 52.614\nsamples = 59\nvalue = 34.279", fillcolor="#f6d5bd"] ;
18 -> 26 ;
27 [label="qPA <= 1.765\nsquared_error = 17.676\nsamples = 33\nvalue = 38.925", fillcolor="#f4ccaf"] ;
26 -> 27 ;
28 [label="squared_error = 7.474\nsamples = 24\nvalue = 40.71", fillcolor="#f4c8a9"] ;
27 -> 28 ;
29 [label="squared_error = 12.7\nsamples = 9\nvalue = 33.989", fillcolor="#f7d6be"] ;
27 -> 29 ;
30 [label="respiração <= 10.095\nsquared_error = 8.151\nsamples = 26\nvalue = 26.02", fillcolor="#fae6d7"] ;
26 -> 30 ;
31 [label="squared_error = 0.901\nsamples = 23\nvalue = 25.119", fillcolor="#fae8da"] ;
30 -> 31 ;
32 [label="squared_error = 7.603\nsamples = 3\nvalue = 33.235", fillcolor="#f7d7c1"] ;
30 -> 32 ;
33 [label="pulso <= 128.162\nsquared_error = 138.195\nsamples = 112\nvalue = 23.922", fillcolor="#fbeade"] ;
1 -> 33 ;
34 [label="pulso <= 44.329\nsquared_error = 134.115\nsamples = 71\nvalue = 29.187", fillcolor="#f8dfcd"] ;
33 -> 34 ;
35 [label="respiração <= 10.335\nsquared_error = 24.134\nsamples = 28\nvalue = 16.004", fillcolor="#fefaf7"] ;
34 -> 35 ;
36 [label="qPA <= 6.44\nsquared_error = 4.231\nsamples = 25\nvalue = 14.207", fillcolor="#fffdfc"] ;
35 -> 36 ;
37 [label="squared_error = 3.217\nsamples = 2\nvalue = 19.841", fillcolor="#fcf2eb"] ;
36 -> 37 ;
38 [label="squared_error = 1.071\nsamples = 23\nvalue = 13.679", fillcolor="#fffefe"] ;
36 -> 38 ;
39 [label="pulso <= 23.295\nsquared_error = 11.517\nsamples = 3\nvalue = 26.486", fillcolor="#fae5d6"] ;
35 -> 39 ;
40 [label="squared_error = 0.535\nsamples = 2\nvalue = 28.849", fillcolor="#f9e0ce"] ;
39 -> 40 ;
41 [label="squared_error = 0.0\nsamples = 1\nvalue = 21.762", fillcolor="#fceee5"] ;
39 -> 41 ;
42 [label="pulso <= 99.126\nsquared_error = 27.42\nsamples = 43\nvalue = 37.376", fillcolor="#f5cfb4"] ;
34 -> 42 ;
43 [label="respiração <= 10.576\nsquared_error = 17.839\nsamples = 29\nvalue = 39.594", fillcolor="#f4cbad"] ;
42 -> 43 ;
44 [label="squared_error = 8.348\nsamples = 25\nvalue = 38.625", fillcolor="#f5cdb0"] ;
43 -> 44 ;
45 [label="squared_error = 11.795\nsamples = 4\nvalue = 49.05", fillcolor="#f0b88f"] ;
43 -> 45 ;
46 [label="respiração <= 9.641\nsquared_error = 18.923\nsamples = 14\nvalue = 33.228", fillcolor="#f7d7c1"] ;
42 -> 46 ;
47 [label="squared_error = 12.566\nsamples = 12\nvalue = 32.172", fillcolor="#f7d9c4"] ;
46 -> 47 ;
48 [label="squared_error = 4.382\nsamples = 2\nvalue = 40.263", fillcolor="#f4c9ab"] ;
46 -> 48 ;
49 [label="respiração <= 10.409\nsquared_error = 14.854\nsamples = 41\nvalue = 14.836", fillcolor="#fefcfa"] ;
33 -> 49 ;
50 [label="pulso <= 133.002\nsquared_error = 1.995\nsamples = 39\nvalue = 13.901", fillcolor="#fffefd"] ;
49 -> 50 ;
51 [label="pulso <= 130.221\nsquared_error = 0.318\nsamples = 3\nvalue = 19.0", fillcolor="#fdf4ed"] ;
50 -> 51 ;
52 [label="squared_error = 0.0\nsamples = 1\nvalue = 19.7", fillcolor="#fcf2eb"] ;
51 -> 52 ;
53 [label="squared_error = 0.109\nsamples = 2\nvalue = 18.65", fillcolor="#fdf4ee"] ;
51 -> 53 ;
54 [label="qPA <= 6.225\nsquared_error = 0.591\nsamples = 36\nvalue = 13.623", fillcolor="#fffffe"] ;
50 -> 54 ;
55 [label="squared_error = 0.447\nsamples = 2\nvalue = 15.649", fillcolor="#fefaf8"] ;
54 -> 55 ;
56 [label="squared_error = 0.349\nsamples = 34\nvalue = 13.506", fillcolor="#ffffff"] ;
54 -> 56 ;
57 [label="qPA <= 7.051\nsquared_error = 4.926\nsamples = 2\nvalue = 28.391", fillcolor="#f9e1d0"] ;
49 -> 57 ;
58 [label="squared_error = 0.0\nsamples = 1\nvalue = 26.171", fillcolor="#fae5d7"] ;
57 -> 58 ;
59 [label="squared_error = -0.0\nsamples = 1\nvalue = 30.61", fillcolor="#f8ddc9"] ;
57 -> 59 ;
60 [label="qPA <= 4.266\nsquared_error = 221.117\nsamples = 325\nvalue = 51.009", fillcolor="#efb489"] ;
0 -> 60 [labeldistance=2.5, labelangle=-45, headlabel="False"] ;
61 [label="respiração <= 19.872\nsquared_error = 184.652\nsamples = 159\nvalue = 58.783", fillcolor="#eca470"] ;
60 -> 61 ;
62 [label="pulso <= 59.63\nsquared_error = 129.717\nsamples = 127\nvalue = 61.746", fillcolor="#eb9e67"] ;
61 -> 62 ;
63 [label="qPA <= -4.375\nsquared_error = 70.835\nsamples = 37\nvalue = 54.051", fillcolor="#eeae7f"] ;
62 -> 63 ;
64 [label="pulso <= 42.475\nsquared_error = 38.021\nsamples = 12\nvalue = 46.961", fillcolor="#f1bc96"] ;
63 -> 64 ;
65 [label="squared_error = 17.04\nsamples = 6\nvalue = 41.506", fillcolor="#f3c7a7"] ;
64 -> 65 ;
66 [label="squared_error = 7.567\nsamples = 6\nvalue = 51.733", fillcolor="#efb287"] ;
64 -> 66 ;
67 [label="qPA <= 0.677\nsquared_error = 56.685\nsamples = 25\nvalue = 56.778", fillcolor="#eda877"] ;
63 -> 67 ;
68 [label="squared_error = 29.086\nsamples = 17\nvalue = 60.507", fillcolor="#eca16b"] ;
67 -> 68 ;
69 [label="squared_error = 17.073\nsamples = 8\nvalue = 48.386", fillcolor="#f1b991"] ;
67 -> 69 ;
70 [label="pulso <= 106.468\nsquared_error = 122.218\nsamples = 90\nvalue = 64.463", fillcolor="#ea995f"] ;
62 -> 70 ;
71 [label="qPA <= 3.503\nsquared_error = 67.569\nsamples = 30\nvalue = 74.609", fillcolor="#e6853f"] ;
70 -> 71 ;
72 [label="squared_error = 53.616\nsamples = 26\nvalue = 76.412", fillcolor="#e58139"] ;
71 -> 72 ;
73 [label="squared_error = 37.026\nsamples = 4\nvalue = 65.368", fillcolor="#ea975c"] ;
71 -> 73 ;
74 [label="respiração <= 17.854\nsquared_error = 76.61\nsamples = 60\nvalue = 59.682", fillcolor="#eca26e"] ;
70 -> 74 ;
75 [label="squared_error = 56.975\nsamples = 50\nvalue = 61.724", fillcolor="#eb9e67"] ;
74 -> 75 ;
76 [label="squared_error = 46.552\nsamples = 10\nvalue = 49.232", fillcolor="#f0b78e"] ;
74 -> 76 ;
77 [label="pulso <= 120.568\nsquared_error = 222.891\nsamples = 32\nvalue = 46.264", fillcolor="#f1bd98"] ;
61 -> 77 ;
78 [label="pulso <= 39.189\nsquared_error = 181.468\nsamples = 20\nvalue = 52.972", fillcolor="#efb083"] ;
77 -> 78 ;
79 [label="pulso <= 10.425\nsquared_error = 56.468\nsamples = 6\nvalue = 35.781", fillcolor="#f6d2b9"] ;
78 -> 79 ;
80 [label="squared_error = 0.0\nsamples = 1\nvalue = 13.933", fillcolor="#fffefd"] ;
79 -> 80 ;
81 [label="squared_error = 3.812\nsamples = 5\nvalue = 38.209", fillcolor="#f5cdb1"] ;
79 -> 81 ;
82 [label="pulso <= 51.095\nsquared_error = 51.452\nsamples = 14\nvalue = 60.447", fillcolor="#eca16b"] ;
78 -> 82 ;
83 [label="squared_error = 5.219\nsamples = 3\nvalue = 51.312", fillcolor="#efb388"] ;
82 -> 83 ;
84 [label="squared_error = 27.922\nsamples = 11\nvalue = 63.671", fillcolor="#ea9a61"] ;
82 -> 84 ;
85 [label="qPA <= -2.621\nsquared_error = 24.042\nsamples = 12\nvalue = 32.427", fillcolor="#f7d9c3"] ;
77 -> 85 ;
86 [label="respiração <= 19.935\nsquared_error = 0.909\nsamples = 6\nvalue = 27.626", fillcolor="#f9e3d2"] ;
85 -> 86 ;
87 [label="squared_error = 0.0\nsamples = 1\nvalue = 29.694", fillcolor="#f8decc"] ;
86 -> 87 ;
88 [label="squared_error = 0.229\nsamples = 5\nvalue = 27.281", fillcolor="#f9e3d3"] ;
86 -> 88 ;
89 [label="qPA <= 3.238\nsquared_error = 10.159\nsamples = 6\nvalue = 36.161", fillcolor="#f6d1b7"] ;
85 -> 89 ;
90 [label="squared_error = 3.518\nsamples = 5\nvalue = 37.099", fillcolor="#f5d0b5"] ;
89 -> 90 ;
91 [label="squared_error = 0.0\nsamples = 1\nvalue = 28.661", fillcolor="#f9e0cf"] ;
89 -> 91 ;
92 [label="respiração <= 18.793\nsquared_error = 142.082\nsamples = 166\nvalue = 43.528", fillcolor="#f3c3a0"] ;
60 -> 92 ;
93 [label="pulso <= 129.508\nsquared_error = 66.833\nsamples = 119\nvalue = 47.766", fillcolor="#f1ba93"] ;
92 -> 93 ;
94 [label="pulso <= 46.058\nsquared_error = 57.528\nsamples = 78\nvalue = 51.394", fillcolor="#efb388"] ;
93 -> 94 ;
95 [label="qPA <= 6.559\nsquared_error = 25.565\nsamples = 22\nvalue = 43.808", fillcolor="#f2c29f"] ;
94 -> 95 ;
96 [label="squared_error = 1.63\nsamples = 11\nvalue = 47.186", fillcolor="#f1bb95"] ;
95 -> 96 ;
97 [label="squared_error = 24.154\nsamples = 11\nvalue = 39.754", fillcolor="#f4caac"] ;
95 -> 97 ;
98 [label="pulso <= 100.642\nsquared_error = 40.411\nsamples = 56\nvalue = 54.175", fillcolor="#eead7f"] ;
94 -> 98 ;
99 [label="squared_error = 34.237\nsamples = 31\nvalue = 57.133", fillcolor="#eda876"] ;
98 -> 99 ;
100 [label="squared_error = 14.766\nsamples = 25\nvalue = 49.528", fillcolor="#f0b78d"] ;
98 -> 100 ;
101 [label="qPA <= 5.274\nsquared_error = 19.412\nsamples = 41\nvalue = 41.391", fillcolor="#f3c7a7"] ;
93 -> 101 ;
102 [label="respiração <= 17.006\nsquared_error = 9.894\nsamples = 23\nvalue = 43.916", fillcolor="#f2c29f"] ;
101 -> 102 ;
103 [label="squared_error = 6.103\nsamples = 14\nvalue = 45.346", fillcolor="#f2bf9b"] ;
102 -> 103 ;
104 [label="squared_error = 3.602\nsamples = 9\nvalue = 40.725", fillcolor="#f4c8a9"] ;
102 -> 104 ;
105 [label="respiração <= 12.758\nsquared_error = 9.778\nsamples = 18\nvalue = 37.603", fillcolor="#f5cfb3"] ;
101 -> 105 ;
106 [label="squared_error = 1.902\nsamples = 5\nvalue = 33.303", fillcolor="#f7d7c0"] ;
105 -> 106 ;
107 [label="squared_error = 4.187\nsamples = 13\nvalue = 39.036", fillcolor="#f4ccae"] ;
105 -> 107 ;
108 [label="pulso <= 133.988\nsquared_error = 168.018\nsamples = 47\nvalue = 32.324", fillcolor="#f7d9c4"] ;
92 -> 108 ;
109 [label="pulso <= 62.559\nsquared_error = 116.703\nsamples = 30\nvalue = 37.762", fillcolor="#f5ceb2"] ;
108 -> 109 ;
110 [label="pulso <= 13.169\nsquared_error = 46.207\nsamples = 11\nvalue = 27.32", fillcolor="#f9e3d3"] ;
109 -> 110 ;
111 [label="squared_error = 29.069\nsamples = 5\nvalue = 22.216", fillcolor="#fbede3"] ;
110 -> 111 ;
112 [label="squared_error = 11.239\nsamples = 6\nvalue = 32.424", fillcolor="#f7d9c3"] ;
110 -> 112 ;
113 [label="respiração <= 21.059\nsquared_error = 46.451\nsamples = 19\nvalue = 44.499", fillcolor="#f2c19d"] ;
109 -> 113 ;
114 [label="squared_error = 28.478\nsamples = 12\nvalue = 47.591", fillcolor="#f1bb94"] ;
113 -> 114 ;
115 [label="squared_error = 30.154\nsamples = 7\nvalue = 38.878", fillcolor="#f4ccaf"] ;
113 -> 115 ;
116 [label="respiração <= 19.991\nsquared_error = 59.487\nsamples = 17\nvalue = 19.717", fillcolor="#fcf2eb"] ;
108 -> 116 ;
117 [label="pulso <= 168.451\nsquared_error = 14.011\nsamples = 6\nvalue = 30.804", fillcolor="#f8dcc8"] ;
116 -> 117 ;
118 [label="squared_error = 7.117\nsamples = 3\nvalue = 28.077", fillcolor="#f9e2d1"] ;
117 -> 118 ;
119 [label="squared_error = 6.027\nsamples = 3\nvalue = 33.532", fillcolor="#f7d7c0"] ;
117 -> 119 ;
120 [label="qPA <= 7.107\nsquared_error = 13.154\nsamples = 11\nvalue = 15.559", fillcolor="#fefbf8"] ;
116 -> 120 ;
121 [label="squared_error = 5.085\nsamples = 4\nvalue = 21.52", fillcolor="#fcefe5"] ;
120 -> 121 ;
122 [label="squared_error = 0.053\nsamples = 7\nvalue = 13.572", fillcolor="#fffffe"] ;
120 -> 122 ;
}